<?xml version="1.0"?>
<opencv_storage>
<cascade>
  <stageType>BOOST</stageType>
  <featureType>HAAR</featureType>
  <height>24</height>
  <width>24</width>
  <stageParams>
    <boostType>GAB</boostType>
    <minHitRate>9.9500000476837158e-001</minHitRate>
    <maxFalseAlarm>5.0000000000000000e-001</maxFalseAlarm>
    <weightTrimRate>9.4999999999999996e-001</weightTrimRate>
    <maxDepth>1</maxDepth>
    <maxWeakCount>100</maxWeakCount></stageParams>
  <featureParams>
    <maxCatCount>0</maxCatCount>
    <featSize>1</featSize>
    <mode>BASIC</mode></featureParams>
  <stageNum>13</stageNum>
  <stages>
    <!-- stage 0 -->
    <_>
      <maxWeakCount>2</maxWeakCount>
      <stageThreshold>-1.6606697440147400e-001</stageThreshold>
      <weakClassifiers>
        <_>
          <internalNodes>
            0 -1 16 8.0353066325187683e-002</internalNodes>
          <leafValues>
            -9.8866856098175049e-001 7.4149662256240845e-001</leafValues></_>
        <_>
          <internalNodes>
            0 -1 33 7.6905064284801483e-002</internalNodes>
          <leafValues>
            -9.0756356716156006e-001 8.9128547906875610e-001</leafValues></_></weakClassifiers></_>
    <!-- stage 1 -->
    <_>
      <maxWeakCount>2</maxWeakCount>
      <stageThreshold>-2.1900577843189240e-001</stageThreshold>
      <weakClassifiers>
        <_>
          <internalNodes>
            0 -1 29 -4.4672571122646332e-002</internalNodes>
          <leafValues>
            6.8000000715255737e-001 -8.6666667461395264e-001</leafValues></_>
        <_>
          <internalNodes>
            0 -1 10 1.2029061466455460e-001</internalNodes>
          <leafValues>
            -8.9900577068328857e-001 7.4498993158340454e-001</leafValues></_></weakClassifiers></_>
    <!-- stage 2 -->
    <_>
      <maxWeakCount>3</maxWeakCount>
      <stageThreshold>-1.0426459312438965e+000</stageThreshold>
      <weakClassifiers>
        <_>
          <internalNodes>
            0 -1 23 -9.1020852327346802e-002</internalNodes>
          <leafValues>
            7.4545454978942871e-001 -8.2564103603363037e-001</leafValues></_>
        <_>
          <internalNodes>
            0 -1 42 2.5650879368185997e-002</internalNodes>
          <leafValues>
            -7.9212653636932373e-001 5.2309834957122803e-001</leafValues></_>
        <_>
          <internalNodes>
            0 -1 34 -2.1724559366703033e-002</internalNodes>
          <leafValues>
            5.7512158155441284e-001 -7.1260607242584229e-001</leafValues></_></weakClassifiers></_>
    <!-- stage 3 -->
    <_>
      <maxWeakCount>3</maxWeakCount>
      <stageThreshold>-1.0788570642471313e+000</stageThreshold>
      <weakClassifiers>
        <_>
          <internalNodes>
            0 -1 38 1.3620123267173767e-001</internalNodes>
          <leafValues>
            -7.5669097900390625e-001 7.9775279760360718e-001</leafValues></_>
        <_>
          <internalNodes>
            0 -1 12 6.6540637053549290e-003</internalNodes>
          <leafValues>
            -6.4776629209518433e-001 5.4207748174667358e-001</leafValues></_>
        <_>
          <internalNodes>
            0 -1 19 -1.7460156232118607e-002</internalNodes>
          <leafValues>
            -9.7879761457443237e-001 3.2560014724731445e-001</leafValues></_></weakClassifiers></_>
    <!-- stage 4 -->
    <_>
      <maxWeakCount>4</maxWeakCount>
      <stageThreshold>-1.0123831033706665e+000</stageThreshold>
      <weakClassifiers>
        <_>
          <internalNodes>
            0 -1 2 1.1720761656761169e-002</internalNodes>
          <leafValues>
            -8.1111109256744385e-001 3.7142857909202576e-001</leafValues></_>
        <_>
          <internalNodes>
            0 -1 28 -2.7821592986583710e-002</internalNodes>
          <leafValues>
            4.7652003169059753e-001 -7.7398020029067993e-001</leafValues></_>
        <_>
          <internalNodes>
            0 -1 3 2.0863726735115051e-002</internalNodes>
          <leafValues>
            3.7769576907157898e-001 -8.7780970335006714e-001</leafValues></_>
        <_>
          <internalNodes>
            0 -1 9 3.6325767636299133e-002</internalNodes>
          <leafValues>
            -9.2496198415756226e-001 2.6797822117805481e-001</leafValues></_></weakClassifiers></_>
    <!-- stage 5 -->
    <_>
      <maxWeakCount>5</maxWeakCount>
      <stageThreshold>-1.3786853551864624e+000</stageThreshold>
      <weakClassifiers>
        <_>
          <internalNodes>
            0 -1 41 -3.1898912042379379e-002</internalNodes>
          <leafValues>
            6.0416668653488159e-001 -7.3762375116348267e-001</leafValues></_>
        <_>
          <internalNodes>
            0 -1 27 6.2052235007286072e-002</internalNodes>
          <leafValues>
            -6.7153638601303101e-001 4.9049010872840881e-001</leafValues></_>
        <_>
          <internalNodes>
            0 -1 22 6.7363709211349487e-002</internalNodes>
          <leafValues>
            -5.6011956930160522e-001 5.6538319587707520e-001</leafValues></_>
        <_>
          <internalNodes>
            0 -1 47 -2.1829372271895409e-003</internalNodes>
          <leafValues>
            -9.3879497051239014e-001 3.4165164828300476e-001</leafValues></_>
        <_>
          <internalNodes>
            0 -1 14 6.2929615378379822e-002</internalNodes>
          <leafValues>
            -8.7655997276306152e-001 3.3530992269515991e-001</leafValues></_></weakClassifiers></_>
    <!-- stage 6 -->
    <_>
      <maxWeakCount>4</maxWeakCount>
      <stageThreshold>-1.6580898761749268e+000</stageThreshold>
      <weakClassifiers>
        <_>
          <internalNodes>
            0 -1 15 -3.8448482751846313e-002</internalNodes>
          <leafValues>
            4.2622950673103333e-001 -7.7248674631118774e-001</leafValues></_>
        <_>
          <internalNodes>
            0 -1 30 -2.8400104492902756e-002</internalNodes>
          <leafValues>
            4.9435308575630188e-001 -6.3087844848632813e-001</leafValues></_>
        <_>
          <internalNodes>
            0 -1 25 5.1155075430870056e-002</internalNodes>
          <leafValues>
            -7.5613236427307129e-001 4.0018305182456970e-001</leafValues></_>
        <_>
          <internalNodes>
            0 -1 11 1.9756734371185303e-002</internalNodes>
          <leafValues>
            -6.8192958831787109e-001 5.0140768289566040e-001</leafValues></_></weakClassifiers></_>
    <!-- stage 7 -->
    <_>
      <maxWeakCount>5</maxWeakCount>
      <stageThreshold>-9.6483790874481201e-001</stageThreshold>
      <weakClassifiers>
        <_>
          <internalNodes>
            0 -1 37 1.5240713953971863e-001</internalNodes>
          <leafValues>
            -7.2195124626159668e-001 6.2222224473953247e-001</leafValues></_>
        <_>
          <internalNodes>
            0 -1 40 9.1193094849586487e-002</internalNodes>
          <leafValues>
            -6.0287648439407349e-001 5.3769415616989136e-001</leafValues></_>
        <_>
          <internalNodes>
            0 -1 24 1.5590691566467285e-001</internalNodes>
          <leafValues>
            -3.8133510947227478e-001 7.9697561264038086e-001</leafValues></_>
        <_>
          <internalNodes>
            0 -1 21 2.9345776885747910e-002</internalNodes>
          <leafValues>
            -8.9709323644638062e-001 3.9883953332901001e-001</leafValues></_>
        <_>
          <internalNodes>
            0 -1 1 1.4764670282602310e-002</internalNodes>
          <leafValues>
            -6.5829473733901978e-001 4.6010738611221313e-001</leafValues></_></weakClassifiers></_>
    <!-- stage 8 -->
    <_>
      <maxWeakCount>4</maxWeakCount>
      <stageThreshold>-1.0600336790084839e+000</stageThreshold>
      <weakClassifiers>
        <_>
          <internalNodes>
            0 -1 20 6.2114289030432701e-003</internalNodes>
          <leafValues>
            -7.3544973134994507e-001 3.1147539615631104e-001</leafValues></_>
        <_>
          <internalNodes>
            0 -1 5 4.7167055308818817e-002</internalNodes>
          <leafValues>
            -8.2039290666580200e-001 2.3814037442207336e-001</leafValues></_>
        <_>
          <internalNodes>
            0 -1 6 3.8410313427448273e-002</internalNodes>
          <leafValues>
            2.5264611840248108e-001 -9.7316086292266846e-001</leafValues></_>
        <_>
          <internalNodes>
            0 -1 7 -3.1233776360750198e-002</internalNodes>
          <leafValues>
            -9.5987284183502197e-001 2.4316293001174927e-001</leafValues></_></weakClassifiers></_>
    <!-- stage 9 -->
    <_>
      <maxWeakCount>4</maxWeakCount>
      <stageThreshold>-1.0919494628906250e+000</stageThreshold>
      <weakClassifiers>
        <_>
          <internalNodes>
            0 -1 4 -5.1522091031074524e-002</internalNodes>
          <leafValues>
            1.2280701845884323e-001 -7.9331308603286743e-001</leafValues></_>
        <_>
          <internalNodes>
            0 -1 35 2.9888058081269264e-002</internalNodes>
          <leafValues>
            -4.9348759651184082e-001 5.9421300888061523e-001</leafValues></_>
        <_>
          <internalNodes>
            0 -1 8 -7.7305817976593971e-003</internalNodes>
          <leafValues>
            -9.2815756797790527e-001 3.0376589298248291e-001</leafValues></_>
        <_>
          <internalNodes>
            0 -1 46 -4.8844926059246063e-003</internalNodes>
          <leafValues>
            -9.6689802408218384e-001 2.0688861608505249e-001</leafValues></_></weakClassifiers></_>
    <!-- stage 10 -->
    <_>
      <maxWeakCount>5</maxWeakCount>
      <stageThreshold>-1.0710362195968628e+000</stageThreshold>
      <weakClassifiers>
        <_>
          <internalNodes>
            0 -1 26 -1.7629168927669525e-002</internalNodes>
          <leafValues>
            2.3756906390190125e-001 -8.8714730739593506e-001</leafValues></_>
        <_>
          <internalNodes>
            0 -1 17 9.9809296429157257e-002</internalNodes>
          <leafValues>
            -5.2295386791229248e-001 6.8031275272369385e-001</leafValues></_>
        <_>
          <internalNodes>
            0 -1 44 5.6801894679665565e-003</internalNodes>
          <leafValues>
            -4.4729828834533691e-001 6.8240195512771606e-001</leafValues></_>
        <_>
          <internalNodes>
            0 -1 49 3.9496952667832375e-003</internalNodes>
          <leafValues>
            3.3265778422355652e-001 -9.0110307931900024e-001</leafValues></_>
        <_>
          <internalNodes>
            0 -1 45 1.7736996524035931e-003</internalNodes>
          <leafValues>
            -5.1745355129241943e-001 5.6274998188018799e-001</leafValues></_></weakClassifiers></_>
    <!-- stage 11 -->
    <_>
      <maxWeakCount>5</maxWeakCount>
      <stageThreshold>-1.2114454507827759e+000</stageThreshold>
      <weakClassifiers>
        <_>
          <internalNodes>
            0 -1 31 2.3749153316020966e-001</internalNodes>
          <leafValues>
            -6.5610861778259277e-001 8.6206895112991333e-001</leafValues></_>
        <_>
          <internalNodes>
            0 -1 48 -3.4666731953620911e-002</internalNodes>
          <leafValues>
            9.5400834083557129e-001 -3.1458303332328796e-001</leafValues></_>
        <_>
          <internalNodes>
            0 -1 13 5.2880332805216312e-004</internalNodes>
          <leafValues>
            3.1196144223213196e-001 -9.8146557807922363e-001</leafValues></_>
        <_>
          <internalNodes>
            0 -1 0 1.2986136134713888e-003</internalNodes>
          <leafValues>
            2.3778662085533142e-001 -8.5861307382583618e-001</leafValues></_>
        <_>
          <internalNodes>
            0 -1 32 4.9478609114885330e-002</internalNodes>
          <leafValues>
            -7.9050189256668091e-001 3.5952261090278625e-001</leafValues></_></weakClassifiers></_>
    <!-- stage 12 -->
    <_>
      <maxWeakCount>5</maxWeakCount>
      <stageThreshold>-1.0108093023300171e+000</stageThreshold>
      <weakClassifiers>
        <_>
          <internalNodes>
            0 -1 48 -1.4909896999597549e-002</internalNodes>
          <leafValues>
            7.0149254798889160e-001 -6.6281753778457642e-001</leafValues></_>
        <_>
          <internalNodes>
            0 -1 36 1.4691719412803650e-001</internalNodes>
          <leafValues>
            -4.3380862474441528e-001 7.5835222005844116e-001</leafValues></_>
        <_>
          <internalNodes>
            0 -1 18 2.0886078476905823e-002</internalNodes>
          <leafValues>
            -7.4657994508743286e-001 3.8276621699333191e-001</leafValues></_>
        <_>
          <internalNodes>
            0 -1 39 -5.3118541836738586e-003</internalNodes>
          <leafValues>
            5.3300356864929199e-001 -5.6772494316101074e-001</leafValues></_>
        <_>
          <internalNodes>
            0 -1 43 -5.6207692250609398e-004</internalNodes>
          <leafValues>
            -8.0032879114151001e-001 2.9939323663711548e-001</leafValues></_></weakClassifiers></_></stages>
  <features>
    <_>
      <rects>
        <_>
          0 5 1 4 -1.</_>
        <_>
          0 7 1 2 2.</_></rects>
      <tilted>0</tilted></_>
    <_>
      <rects>
        <_>
          0 5 13 6 -1.</_>
        <_>
          0 7 13 2 3.</_></rects>
      <tilted>0</tilted></_>
    <_>
      <rects>
        <_>
          0 7 8 2 -1.</_>
        <_>
          4 7 4 2 2.</_></rects>
      <tilted>0</tilted></_>
    <_>
      <rects>
        <_>
          0 8 5 14 -1.</_>
        <_>
          0 15 5 7 2.</_></rects>
      <tilted>0</tilted></_>
    <_>
      <rects>
        <_>
          0 14 12 10 -1.</_>
        <_>
          0 14 6 5 2.</_>
        <_>
          6 19 6 5 2.</_></rects>
      <tilted>0</tilted></_>
    <_>
      <rects>
        <_>
          1 2 17 8 -1.</_>
        <_>
          1 6 17 4 2.</_></rects>
      <tilted>0</tilted></_>
    <_>
      <rects>
        <_>
          1 4 14 16 -1.</_>
        <_>
          1 12 14 8 2.</_></rects>
      <tilted>0</tilted></_>
    <_>
      <rects>
        <_>
          1 5 15 16 -1.</_>
        <_>
          1 13 15 8 2.</_></rects>
      <tilted>0</tilted></_>
    <_>
      <rects>
        <_>
          1 6 2 12 -1.</_>
        <_>
          1 10 2 4 3.</_></rects>
      <tilted>0</tilted></_>
    <_>
      <rects>
        <_>
          1 6 14 5 -1.</_>
        <_>
          8 6 7 5 2.</_></rects>
      <tilted>0</tilted></_>
    <_>
      <rects>
        <_>
          1 6 14 15 -1.</_>
        <_>
          8 6 7 15 2.</_></rects>
      <tilted>0</tilted></_>
    <_>
      <rects>
        <_>
          1 7 8 4 -1.</_>
        <_>
          5 7 4 4 2.</_></rects>
      <tilted>0</tilted></_>
    <_>
      <rects>
        <_>
          1 8 8 1 -1.</_>
        <_>
          5 8 4 1 2.</_></rects>
      <tilted>0</tilted></_>
    <_>
      <rects>
        <_>
          1 10 7 2 -1.</_>
        <_>
          1 11 7 1 2.</_></rects>
      <tilted>0</tilted></_>
    <_>
      <rects>
        <_>
          1 13 14 7 -1.</_>
        <_>
          8 13 7 7 2.</_></rects>
      <tilted>0</tilted></_>
    <_>
      <rects>
        <_>
          2 0 11 6 -1.</_>
        <_>
          2 2 11 2 3.</_></rects>
      <tilted>0</tilted></_>
    <_>
      <rects>
        <_>
          2 2 20 19 -1.</_>
        <_>
          12 2 10 19 2.</_></rects>
      <tilted>0</tilted></_>
    <_>
      <rects>
        <_>
          2 2 12 9 -1.</_>
        <_>
          2 5 12 3 3.</_></rects>
      <tilted>0</tilted></_>
    <_>
      <rects>
        <_>
          2 6 10 6 -1.</_>
        <_>
          7 6 5 6 2.</_></rects>
      <tilted>0</tilted></_>
    <_>
      <rects>
        <_>
          2 7 8 16 -1.</_>
        <_>
          2 15 8 8 2.</_></rects>
      <tilted>0</tilted></_>
    <_>
      <rects>
        <_>
          2 15 4 2 -1.</_>
        <_>
          4 15 2 2 2.</_></rects>
      <tilted>0</tilted></_>
    <_>
      <rects>
        <_>
          2 17 22 4 -1.</_>
        <_>
          13 17 11 4 2.</_></rects>
      <tilted>0</tilted></_>
    <_>
      <rects>
        <_>
          3 4 10 9 -1.</_>
        <_>
          3 7 10 3 3.</_></rects>
      <tilted>0</tilted></_>
    <_>
      <rects>
        <_>
          3 7 11 9 -1.</_>
        <_>
          3 10 11 3 3.</_></rects>
      <tilted>0</tilted></_>
    <_>
      <rects>
        <_>
          3 11 16 9 -1.</_>
        <_>
          3 14 16 3 3.</_></rects>
      <tilted>0</tilted></_>
    <_>
      <rects>
        <_>
          3 15 20 7 -1.</_>
        <_>
          13 15 10 7 2.</_></rects>
      <tilted>0</tilted></_>
    <_>
      <rects>
        <_>
          3 17 9 4 -1.</_>
        <_>
          3 19 9 2 2.</_></rects>
      <tilted>0</tilted></_>
    <_>
      <rects>
        <_>
          3 18 18 4 -1.</_>
        <_>
          12 18 9 4 2.</_></rects>
      <tilted>0</tilted></_>
    <_>
      <rects>
        <_>
          4 10 15 6 -1.</_>
        <_>
          4 12 15 2 3.</_></rects>
      <tilted>0</tilted></_>
    <_>
      <rects>
        <_>
          4 16 10 6 -1.</_>
        <_>
          4 19 10 3 2.</_></rects>
      <tilted>0</tilted></_>
    <_>
      <rects>
        <_>
          4 20 20 4 -1.</_>
        <_>
          4 20 10 2 2.</_>
        <_>
          14 22 10 2 2.</_></rects>
      <tilted>0</tilted></_>
    <_>
      <rects>
        <_>
          5 1 10 12 -1.</_>
        <_>
          5 5 10 4 3.</_></rects>
      <tilted>0</tilted></_>
    <_>
      <rects>
        <_>
          5 1 11 10 -1.</_>
        <_>
          5 6 11 5 2.</_></rects>
      <tilted>0</tilted></_>
    <_>
      <rects>
        <_>
          5 2 8 12 -1.</_>
        <_>
          5 6 8 4 3.</_></rects>
      <tilted>0</tilted></_>
    <_>
      <rects>
        <_>
          5 18 7 6 -1.</_>
        <_>
          5 20 7 2 3.</_></rects>
      <tilted>0</tilted></_>
    <_>
      <rects>
        <_>
          6 0 18 4 -1.</_>
        <_>
          6 0 9 2 2.</_>
        <_>
          15 2 9 2 2.</_></rects>
      <tilted>0</tilted></_>
    <_>
      <rects>
        <_>
          6 1 15 8 -1.</_>
        <_>
          6 5 15 4 2.</_></rects>
      <tilted>0</tilted></_>
    <_>
      <rects>
        <_>
          6 11 7 12 -1.</_>
        <_>
          6 15 7 4 3.</_></rects>
      <tilted>0</tilted></_>
    <_>
      <rects>
        <_>
          6 12 9 9 -1.</_>
        <_>
          6 15 9 3 3.</_></rects>
      <tilted>0</tilted></_>
    <_>
      <rects>
        <_>
          7 22 16 2 -1.</_>
        <_>
          7 22 8 1 2.</_>
        <_>
          15 23 8 1 2.</_></rects>
      <tilted>0</tilted></_>
    <_>
      <rects>
        <_>
          9 6 15 18 -1.</_>
        <_>
          14 6 5 18 3.</_></rects>
      <tilted>0</tilted></_>
    <_>
      <rects>
        <_>
          10 7 2 9 -1.</_>
        <_>
          10 10 2 3 3.</_></rects>
      <tilted>0</tilted></_>
    <_>
      <rects>
        <_>
          13 0 6 8 -1.</_>
        <_>
          13 4 6 4 2.</_></rects>
      <tilted>0</tilted></_>
    <_>
      <rects>
        <_>
          14 16 3 3 -1.</_>
        <_>
          14 17 3 1 3.</_></rects>
      <tilted>0</tilted></_>
    <_>
      <rects>
        <_>
          16 0 2 4 -1.</_>
        <_>
          16 2 2 2 2.</_></rects>
      <tilted>0</tilted></_>
    <_>
      <rects>
        <_>
          18 19 6 5 -1.</_>
        <_>
          20 19 2 5 3.</_></rects>
      <tilted>0</tilted></_>
    <_>
      <rects>
        <_>
          20 13 4 9 -1.</_>
        <_>
          20 16 4 3 3.</_></rects>
      <tilted>0</tilted></_>
    <_>
      <rects>
        <_>
          21 0 3 24 -1.</_>
        <_>
          21 8 3 8 3.</_></rects>
      <tilted>0</tilted></_>
    <_>
      <rects>
        <_>
          22 0 2 22 -1.</_>
        <_>
          23 0 1 22 2.</_></rects>
      <tilted>0</tilted></_>
    <_>
      <rects>
        <_>
          22 6 2 9 -1.</_>
        <_>
          22 9 2 3 3.</_></rects>
      <tilted>0</tilted></_></features></cascade>
</opencv_storage>
